34 128
34 -0.0012724862 -7.8494384e-05 -0.00094565103 0.0029632363 -0.0021951024 -0.00015530488 -0.0017592368 -0.0008963991 0.0027287703 -0.0034468917 -0.0010766629 0.0037692427 -0.0018015555 0.001601302 0.0014096602 0.0023063312 -0.00087118737 0.0017729006 -0.0027303395 0.002502765 -0.0010650875 0.00057151716 0.0033470625 0.00092325907 0.0027984695 0.00078683515 0.0015357826 -0.0031288739 0.003398793 0.003803461 -0.0008897157 0.0024710803 -0.0015344629 -0.00068447524 -0.0014101712 0.0026113472 -0.0011187359 -0.0024124326 0.002703843 -0.0038862508 0.0025397234 0.0024454733 -0.0019469108 -0.0014832057 0.0020699825 0.0020862697 -0.00055636896 -0.00036797067 -0.0017168915 0.002126044 -0.0007702515 -0.0023722078 -0.00020481696 0.0034632515 0.0015198062 -0.0034494982 0.0018578969 0.0028478138 0.0011573369 0.0023460689 0.0015596475 0.0011654954 -0.0014798618 -0.0033351958 -0.0012222436 -0.0017814898 0.0019526193 0.0032498166 -0.00021108646 -0.00058906653 0.0006885909 -0.0001222826 0.0033504565 0.0030669584 -0.0013722377 0.0021897987 0.0035485188 -0.00060459645 0.0012996884 -0.0011892447 -0.0027849334 -0.00050244 -0.00057137024 0.0019260229 0.0010263263 -0.0037767298 -0.0035689087 -0.00047385754 1.0169059e-05 -0.0014174053 0.0022330484 0.00062697567 0.0025245766 -0.0020321815 -0.0016549262 0.001685252 -0.0011367791 0.00066757685 -0.0032557126 0.0013148829 0.0017549585 0.0022676918 0.00021210242 0.0016518211 -0.0027271546 -0.0010382519 -0.0015506272 0.00032746568 0.0031774316 0.0015283895 0.002042311 0.0019364617 0.0036284053 -0.002377846 -0.0033656077 0.00075049937 -0.0027690234 -0.0012054768 -0.0016945298 6.0798513e-05 0.0031459762 0.00089917396 -0.0026790958 -0.0009142087 0.0024193665 0.0017070015 -0.0023684748 0.0029185459
1 -0.0005761025 -0.0023426278 0.0024709618 0.00085147575 0.002742487 0.0033976962 -0.0037178933 6.672747e-05 -0.003163877 -0.0029743018 0.0017044997 -0.003362499 0.0025203256 0.00020130163 0.0024039363 0.0023980963 -0.0034568117 0.0014139618 0.0035564103 -0.0024048588 -0.0005711474 0.0031095743 -0.0005578714 -0.0012035092 -0.0034982343 -0.00013974756 0.0016667969 -0.0005423119 0.0029908135 -0.0027634173 -0.0016339438 0.00015545916 0.0022725428 0.003795283 -0.0014885834 -0.0013595967 -0.002334419 0.0028049636 0.0018680936 -0.00043314794 -0.00044485892 0.003669459 -0.0003410155 0.0016423701 5.2448853e-05 -0.0006894973 0.0015740017 -0.002237333 3.2908665e-05 0.00088095135 -0.0035824948 -0.0010915371 -0.00040548033 0.0018657865 0.0038824002 0.0031946767 2.2664185e-06 0.0022635392 -0.0024841386 -0.0010552251 -0.0030390404 -0.00055210205 0.0035200627 -0.0010555376 0.00012317726 -0.0023501616 -0.0011299531 0.002558649 -0.001591257 -0.0011086875 -0.0016024535 -8.876053e-05 0.0038626124 0.0039046418 0.0021194527 -0.0014551491 0.0027281158 0.0020722945 -0.0007672393 -0.0024759148 -0.0032520886 0.0022584756 0.0024099771 0.0014988614 -0.0010185614 -0.0028566245 0.003022887 0.0006373942 -0.0033288877 -0.0010663997 -0.0031916366 0.0017850715 -0.0007089608 0.0026178458 -0.0011271026 0.002254131 -0.0025893974 -0.00037199797 -0.0014256012 0.0018456338 -0.0015681433 -0.0022373707 -0.0022889306 0.0013611034 -0.002965137 -0.0014281205 -0.0014301747 0.0007186338 -0.0034493613 0.0004185086 0.0015155755 0.0009468162 -0.0035066472 0.00066457887 0.0022468707 0.00076595234 -0.0027620646 -1.1549357e-05 -0.00046991507 -0.0018041003 -0.0039021566 -0.0015056139 0.0037739417 -0.002476266 -0.0013785103 0.00059660355 -0.0020098647 0.0013901801
33 -0.0015490034 -0.0017469025 0.003234443 0.0021020418 0.0033191158 -0.00022446031 0.00227795 -0.0015218299 -0.0018132768 0.00049886596 -0.0022885303 -0.0034043558 0.0011727437 0.0038772272 -0.00089159666 -0.0034726912 0.0016286403 -0.00016574343 0.0038419585 0.0014660258 -0.0003786072 0.0036836863 -0.00046406174 -0.0036453432 -0.0027938304 0.0009643609 0.0010419583 -0.0012537738 -0.0017914029 -0.0021709932 0.002962383 -0.003015878 -0.0026589485 -0.00028369593 -0.0014842065 0.0031182994 0.0037407505 -0.0011762511 -0.003886616 -0.0018880289 0.00042111764 0.0015598704 -0.0008980862 -8.639283e-05 -0.0016487823 -0.00049068057 0.0027282888 -0.0009870202 -0.0034106546 -0.00037952123 0.0007160582 -0.0027474172 -0.0020492692 -0.0012877523 -0.0025744564 0.0023471972 -0.0026398094 -0.002104992 0.0034813539 0.0034806074 -0.0003402336 -7.3943025e-05 0.0019390323 0.0026249317 -0.002644106 0.0032477402 0.00014264371 -0.003876335 -0.0026870552 0.0012687498 0.0016618505 -0.0007570108 -0.00057341595 -0.0031524147 -0.0018117412 -0.0024783702 0.0033261864 -0.0022305262 -0.0006880555 -0.0034552952 0.0037766155 -0.00013022021 0.00084095105 0.0016314114 0.0033835755 -0.002845914 0.00021625627 8.2955585e-06 0.0009884753 0.0011464665 0.0017621418 0.0021857896 -0.0014472309 -0.0002775837 -0.0012547259 0.0010312228 -0.0009825531 -0.0026203948 0.003881517 0.0013440005 0.0023879912 -0.0037157412 -0.0016833072 0.0006598956 0.0013345288 0.0036131549 0.0014385765 -0.00084026664 -0.002859657 0.0036862083 0.0037316168 0.0038419545 -0.0030369605 0.002139805 -0.00016060802 0.0026972557 -0.002921073 -0.0034863995 0.002508162 0.0017715236 -0.00071647216 -0.003272218 0.0038499509 -0.00044696554 0.00081818766 -0.0022322668 0.003034373 0.0006626235
3 -0.0015561922 -0.0029101598 0.0033735347 -0.0013679625 0.00039101424 0.0027145594 0.0035661631 0.0013746289 -0.0023555397 -0.0024651277 0.0026635882 -0.0036052703 -0.0015564701 -0.00021219905 0.0019191658 0.0021357802 -0.0026385915 0.0010358569 0.0007378467 -0.0033156394 -0.0006690987 3.0639705e-05 -0.0010881891 -0.0015756348 0.0014229114 -0.001242068 0.0005144387 0.002261326 -0.0031569838 0.000115939496 -0.0029410606 0.0025212779 -0.0008924016 -0.00067579455 -0.002201889 0.0026863625 0.0024592902 0.0022541033 0.00041653542 -0.0019860314 0.0012370117 -0.0013649883 -0.002565522 -0.0038213956 -0.001905629 0.00041026232 0.00056440517 -0.0005444266 0.0017215229 0.0005119958 -0.0023464556 -0.001977274 -0.002829748 0.00088100863 -0.0038847018 0.0012603104 -0.0026522765 -0.0001840629 0.002779732 -0.0034584363 -0.0011689567 0.0011799198 0.0006599216 0.0034041097 0.00072428404 -0.000105631916 0.0008888878 0.003398701 0.0033297692 -0.0038721685 -0.00093857816 0.00086401927 0.0018904973 -0.00088015205 -0.0010630209 -0.0036943634 -0.0009077579 -0.0004364285 0.0016519106 0.0010571289 -0.0035286185 -0.0030313758 0.0023204195 -0.0022352275 0.0025668473 -0.00119184 -0.0023812728 0.002569385 0.0013636001 0.0007126334 -0.0030940978 -0.0005213587 0.0035107043 0.0014204094 -0.0011566653 0.0030021644 -0.0020174203 0.0007015455 0.0028750328 0.0032722636 -0.0016497876 -0.000863368 -0.002473263 7.592521e-06 0.0038911905 0.0030883092 0.001748121 0.0026357814 -0.0024952146 -0.0022206407 -0.0007649214 -0.0017251251 -0.00029701152 2.2361239e-05 0.0019898498 -0.003724437 -0.0030600931 -0.00045002863 -0.0018122356 0.0036967527 0.001496303 -0.0036666822 -0.0024156035 -0.0016720059 0.0008090135 0.0029228004 -0.0033659162 0.00097235315
2 0.00312109 -0.003670091 -0.0005090982 0.0007210451 -0.0016555155 0.002724842 -0.0031948101 -0.0010677655 -0.00047492763 0.0026541145 -0.0017165403 0.00073784724 0.0021226313 -0.0017079739 0.0035261558 0.00019405935 0.0019419307 -0.0020661515 0.0012973811 0.00090246485 0.0032193714 -0.0021757362 0.002415032 0.0034119298 0.0020677173 0.0014178045 0.0024206094 0.001612703 0.0032135274 0.0035152102 0.003092286 -0.0024034854 -0.0027030052 -0.0016120438 0.002184019 0.0013454664 -0.00013461363 0.0027564815 0.001078464 -0.0030075184 0.0010124119 0.0032386573 0.0034932557 8.660049e-06 0.0019230585 -0.0007538122 0.00035029207 0.0031454305 0.0036577545 -0.0032549342 -0.0013688793 -0.0026756658 -0.0016656428 -0.0024117024 -0.000781623 -0.0030835075 -0.00013056249 0.0030182225 0.0023130402 0.0021490904 0.0022558114 -0.00013272524 -0.002103799 0.0026815217 0.0033379658 -0.0011368544 -0.001877481 0.00016306249 0.0037113088 -0.0009876775 0.002824509 0.003505899 0.000990092 0.0030495902 -0.0013651145 0.0010012186 8.995857e-05 -3.9571143e-05 -0.0029313264 0.0019542295 -0.0036399425 0.0037109517 -0.00077196094 0.0026099847 -7.4563904e-05 -0.0013636646 0.00033959124 0.0019539336 -0.0035876262 0.0036982829 0.0019782363 -0.0023613174 9.942935e-05 -0.0009138693 -0.00066977396 -0.0016527681 -0.00023715755 -0.0031694472 -0.0014988928 0.0010822213 0.0037914522 0.00032967617 -0.0007309735 -0.0036310116 -0.00085163297 -0.0035797213 -0.0031140267 -0.0035492424 0.0019384656 -0.0021549545 0.0013416234 -0.0017107902 0.0035025931 -0.002258543 -0.0016165392 0.00022152756 -0.0029958845 0.0026130583 -0.0007119187 0.0035976463 -0.0003718193 -0.0017317558 0.0005296512 -0.0029095795 0.0017959351 -0.002826701 0.0004515259 -0.0031173395
32 -0.0007930184 -0.0005813485 0.0033962496 0.0019359328 0.0037988424 0.0012503975 -0.00058889884 -0.00016273592 0.002620455 0.000623807 0.0017329284 0.0024940644 -0.0016377677 -0.0026726564 -0.0004954662 -0.0029280817 0.0028856455 0.0010227608 0.0010296886 0.00080172863 -0.0020140514 -0.0018679786 0.0022543138 -0.0023712125 -0.0016781173 0.0001990185 -0.00038146653 -0.0008050818 0.002381271 -0.002794455 0.0032879056 -0.0034632783 0.0001680848 -0.0009842389 -0.0033945374 0.002713351 0.0034595707 -0.003859427 -0.0015367643 -0.0033797447 0.00091122964 0.001211748 -0.00010414103 -0.0012213615 5.9369475e-05 0.00079068664 0.003803084 0.0022696785 0.0015038181 0.0036965082 0.0028796797 -0.0022361518 -0.0035517542 -0.003077396 0.0017255193 -0.0016724919 -0.00036909894 0.0014451286 0.0016638618 0.0031459176 -0.00048961124 4.8108617e-05 -0.0018420946 -0.0003730699 -0.00084745395 0.0007899933 -0.0034452695 -0.0023710944 -0.003855193 -0.0010449578 -0.0005494368 -0.0005652354 -0.0027329368 -0.0017098159 0.003855996 0.0036109998 0.0016649438 -0.0022955306 0.003275156 0.0011582471 -0.00023177422 -0.002046567 0.0014549843 0.0011586861 -0.001828673 -0.00055287214 0.0016103806 -0.0017095355 -0.0022906577 0.0010128211 -0.00222031 -0.0018049489 0.002706455 0.0013721563 -0.0004892599 0.0032365737 -0.00024732918 -0.0005549169 -0.0036967874 -0.00016787606 0.00024975918 -0.0015938259 -0.0026528041 0.0033144308 0.003573267 0.003612873 0.0038065934 0.0036058847 -0.002790343 0.0022844048 0.003234825 -0.0029392221 -0.00054242584 0.0035771052 0.00028523116 -0.0011311282 -0.0011125985 -0.00026646708 8.702964e-05 0.0035091937 0.002072422 0.0004461491 -0.0031040441 0.003615914 -0.0019706339 0.0014790605 0.0026727312 -0.0026791128
4 -0.003768258 0.0031139378 0.0038659035 -0.0017779854 -0.00048275976 0.0010755353 -0.0032112205 -0.0010690988 0.0024970896 0.00031161873 -9.655196e-05 -0.00070886756 -0.0017456044 0.0012619732 0.00081131293 0.002289527 0.0011913467 -0.0029802262 0.0037561005 -0.0036489835 -0.0011488976 0.0020351235 0.0020830706 0.0034026292 -0.0013275396 -0.00020761187 -0.0023476195 0.0007292738 0.0002782607 -0.0013705179 -0.00084159325 0.00035571906 0.0020836 0.0001897959 -0.00086839043 -0.0032880562 0.0038274722 -0.0016350626 -0.0038778135 -0.0010503903 -0.0015275372 -0.0026545685 0.0010542249 2.1659347e-05 -0.00015568879 -0.0023603004 -0.0033734355 0.00065768266 0.00047317398 0.0037183212 0.00047510437 -0.0033461303 -0.0038710367 -0.0028438903 -0.00093254994 0.0034050576 -0.003688877 -0.0002373415 -0.00288475 -4.55373e-05 0.00094193226 0.0018067899 -0.002886193 -0.0021075143 0.0015039158 -0.0030006024 0.0006624683 -0.0037389805 -0.0029768609 -0.0031217618 0.001852458 -0.0025682277 0.0011724596 0.0035930378 -0.0027891619 -0.0024449977 -1.6932785e-05 0.00092502375 -0.0016106965 -0.0009003484 -0.0022846193 -0.00010478149 0.0024017333 0.0005032689 -0.0016102616 0.0033807599 -0.00045430945 -0.0026607476 0.0035141364 0.0019283124 -0.0025808348 0.0035543384 0.0015580502 0.0005548725 -0.0028072635 -0.0026736152 -0.0032740736 0.0026854954 -0.0018053538 0.0034928808 -0.0022875224 -0.003510626 -0.0008940666 -0.0014053639 -0.0020518336 0.00019599489 0.0023108856 -0.00031588657 -0.00342902 0.0029399218 -0.0025717455 -0.00192241 0.0031998162 -0.0017648505 -0.00063199084 -0.0003160877 -0.0017685536 -0.0023184826 -0.0036984426 0.00094239577 -0.0003396839 0.00015297114 -0.0014223556 0.003363759 -0.0032237293 0.0038776826 -0.0037704422 0.00029495542
14 -0.0038925642 -0.0038523832 -0.0016318009 -7.61695e-05 0.0036377842 -0.00097301474 0.0035838184 -0.0035544953 -0.0008208638 0.0019057064 0.0035982751 -0.0007171354 -4.5741643e-05 0.0019032054 0.0011515146 -2.6850117e-05 -0.0025656933 0.0036582416 -0.0007193251 -0.0004660069 -0.0017974132 0.0015878725 0.0023273877 -0.0012547855 -0.0007311442 -0.0037494036 0.0009176545 0.001881315 -0.00096364703 0.0017657349 0.00018367487 0.00017156413 -0.0008182875 -0.0017566016 0.00034997368 -0.00028195465 0.0030927858 -0.0038298403 -0.00090940745 0.0039019145 0.0028165304 0.003753706 -0.0004896417 0.0006900544 -0.001404598 0.003160448 -0.0011579358 -0.0023330725 -0.0035146335 0.0034517727 0.001329751 -0.0030188314 0.0018013869 -0.0026520537 0.0022251282 -0.001526403 0.0005005561 -0.003227909 -0.00031993512 -0.00013559658 -0.0023229877 0.00013618948 -0.0026460476 7.8589415e-05 0.0006000349 0.0016718322 0.00029440454 -0.0016966233 0.0019249964 -0.0030193059 0.0027572818 0.0021242017 -0.0033842388 -0.0016095004 -0.0004788675 -0.0015019312 0.002835808 0.002751257 -0.0031468116 -3.650608e-05 0.0033039155 -0.003723167 -0.0029204956 -0.000886002 0.003584891 -0.003392725 0.0029519298 -0.0009376863 0.0032848755 0.0022796746 -0.00077806396 -5.541687e-05 -0.0037093349 0.0038661652 0.0011343205 0.0006733959 -0.0017692652 -0.0013310646 -0.0028492897 -0.003098566 -0.0013990533 -0.0028880083 -0.0018161846 -0.0026794665 -0.00058883266 -0.0004457882 0.00094230624 0.0008715222 0.0025943278 0.00036526378 0.0022375046 0.0013869817 -0.00070131064 -0.0018637362 -0.0026370543 0.0008005649 -0.0011810294 0.0017709412 0.0023466225 -0.0010642634 0.0007681695 -0.00014128856 -0.0001001543 0.0031192005 -0.00016159232 -0.001109131 -0.0037310973 1.8517603e-05
24 -0.0034626436 0.002971584 0.0028244436 -0.00047693282 0.003636697 0.0022497196 -0.00240686 -0.0021108114 0.0037689314 -0.00034667013 0.0024241654 -0.0026764804 -1.3412339e-05 0.0018225802 0.0019391085 0.00076727686 0.00034926616 0.0031245688 0.002089382 0.0037419659 0.0035291302 -3.9965675e-05 0.0022911357 0.002563712 -0.00035288124 0.0037163596 0.001572939 0.001972657 0.0038172335 0.0015304524 -0.0009656791 0.0031262587 0.00010385342 0.0008136182 -0.0022685304 -0.0014269974 -0.0017151588 -0.0026228875 -0.00091521844 -0.001267512 -0.002666863 -0.003267699 0.0011811896 -0.0013223405 -0.0030216088 -0.00027517776 0.003452406 0.0010725508 -0.0028364388 -0.0037177072 -0.00085546996 0.0009431128 0.0018867375 0.0010501676 -0.0030158497 -0.0029154783 -0.00076899555 -0.0034275795 -0.00125803 -0.0017770604 -0.0017508791 -0.0032867126 6.638646e-05 0.0037981581 0.0008296159 0.0021819565 0.0018606425 0.0019052493 0.0033610726 -0.0023306918 0.0011128879 0.00065325387 -0.0006034331 -0.0035039037 0.00087070256 -0.0017359561 -0.00337432 0.00093471434 -0.0018546439 0.001861378 0.0016135733 -0.00089456054 -0.0023459613 -0.0016377796 -0.0015873938 -0.0019360302 -0.0006233306 0.0010312459 0.0014781905 0.0037925357 0.0036300186 -0.0035435765 0.0024003747 0.0039030418 -0.0010913678 -0.0032226501 0.0020951794 -0.0036157656 0.0025103472 -0.0035260455 -0.003046161 0.0014899661 0.0027675475 -0.0014519274 0.0018405115 0.0017251027 -0.0036637136 -0.0024570257 0.0012637973 0.0015339458 0.00029426426 0.003561466 0.0010322972 -0.002052236 -0.0030601046 0.0021760599 -0.00053492934 -0.003642704 0.0030944548 0.0010509754 -0.001274764 0.00047216742 -0.0031256103 -0.0035934015 0.0026324817 0.0036824553 0.0011755312 0.0011734475
28 0.0036397243 0.0034865558 -0.0029932174 -0.0010185973 0.003601519 0.0036761626 0.0004190726 -0.0029321976 0.0015747889 -0.0005861178 0.00085348514 9.808244e-05 0.0021081124 0.0016108915 0.0005391813 -0.001117839 -0.00046122025 0.0025602137 -0.003459153 -0.003757586 -0.0006114523 0.00070999557 0.0018000562 0.003209693 -0.002182907 0.0025261955 0.0013676567 0.0019462787 0.0035775523 0.00031215034 -0.0016035179 0.003418808 -0.00013143719 0.0032620116 -0.0025692491 0.0023671903 0.00097005925 0.003567219 0.0015501119 0.0008333989 -0.0038117934 -0.0033369772 0.002173623 -0.0036889676 0.0005316096 -0.0029614705 0.0027629812 0.0030381673 -0.0003604552 0.0015876424 0.002888477 -0.0007485256 0.0026142977 0.0008755228 0.0023319598 -0.0017887515 0.0029750196 -0.00072197744 -0.0009934806 -0.0013075961 0.0011366563 0.0012106266 -0.0007165868 -0.0025450888 -0.0037284687 0.0020819264 -0.0033394818 -0.00076526986 -0.0018172592 -0.0038209034 0.001606904 0.00073998136 -0.0011789004 0.003743891 -0.002257018 0.0001277021 0.0011372085 0.002187348 0.00048221374 -0.0037404965 0.0020721979 -0.0008566706 0.00049813715 0.003157974 0.0006694126 0.0005302597 0.0033570365 -0.0035273454 -0.0030622822 -0.0015266257 0.0019955733 0.0012070602 -0.0034219474 0.0025511188 0.0033588072 0.0022114252 0.0038666849 -0.0016381309 0.0023266543 0.00067633844 0.0016447157 -0.0008705453 0.0014759665 0.0007438506 -0.0014269323 0.0030351214 -0.00340486 0.00033038508 -0.0014474896 -0.001024664 0.0010705902 0.0037018175 0.00043978743 -0.0009412895 0.00014057048 0.0016454901 -8.9311674e-05 -0.0034947423 0.0008343978 0.0036734045 -0.0011772035 -0.0019440819 -0.0013033205 0.0032191703 -0.0017133058 -0.0029405304 -0.00025066608 -0.00017302377
9 0.0028781486 -0.0005369181 -0.0006515285 0.0008059648 -0.0005612166 0.0004621561 -0.0031438137 -0.00021264229 0.0038801485 0.0009867774 0.0011168635 -0.0031476007 -0.0015496684 0.0034581015 -0.00013579532 0.0015972739 0.0027965738 0.002938951 0.0014678268 0.0014151392 0.0034902166 -0.00033095258 -0.00087365834 -0.00078224426 -0.0033714906 0.00056630693 0.0018407599 0.00051038107 -0.00038823928 -0.0030900028 0.0005528308 -0.00064574176 -0.0022098322 0.0032206504 -0.0036364857 0.003005456 0.002506474 -0.0035235328 0.0016695671 -0.0027517544 0.003001255 0.00023462293 -0.0033962734 -0.00034702476 -0.0011109106 0.00022359849 0.0024169516 0.00075836544 0.0023680925 0.0011803709 -0.0026844374 -0.00063389196 0.00057618273 0.0003323799 0.0025103404 -0.0016895583 0.0013566257 0.0016907019 0.0030484486 -0.00089654955 -0.0031734004 -0.003007899 0.0021128133 7.7199766e-05 0.0037997044 0.0033103016 0.0038723047 0.0022380902 -0.0016724629 0.000785249 0.0016178121 -0.00095074344 8.634632e-05 0.0018345473 0.0023380306 -0.0014136238 0.002998525 -0.0017105209 -0.0033493105 0.0013022905 0.0015942511 -0.0012142523 0.0016590566 0.000101145764 0.0037810926 -0.0026972007 -0.00088017463 0.00069664896 0.0015210707 0.0015567251 -0.001413917 -0.001689848 -0.0006090411 0.00061624905 -0.0017701847 0.0016785559 -0.0014011379 0.0035546983 0.0036241636 0.0005052368 -0.0016938031 0.0011445613 0.00053685595 -0.00039516034 -0.0022074059 -0.0037004196 0.0007242176 0.001804402 -0.0027601996 -0.003030775 0.0005154521 0.0006634469 -0.0015897056 0.003904251 0.0024391883 0.0035986071 -0.0002790557 -0.0005827686 -0.0018288944 -0.0003343248 0.003753834 -0.0002227827 -0.00034130283 0.0011870558 0.0025971185 -0.002426199 0.0006271116 0.0028800408
6 0.001402393 0.0011797005 -0.0025549144 -0.0013579255 -0.0027504636 0.0003875536 -0.0027406935 0.0031068607 0.0019756062 0.00019325758 0.002394545 0.0037173876 -0.0013203402 -0.0014334585 -0.003363264 0.0023341302 -0.0025075262 -0.0032400712 -0.002421684 -0.0020489853 -0.0038803548 -0.00060727476 -0.0028134468 0.0034399016 0.00024260988 0.00096147443 0.0013792067 0.0030917083 -0.002862976 0.0020515865 -0.0015490259 -0.002791431 -0.0018964822 -0.0018024578 -0.0028642989 -0.0017843321 0.0012956543 0.0028868928 -0.0024754063 -0.0034611912 0.00065054855 -0.0017621707 0.002415354 0.0008135231 0.0021073166 -1.3064878e-06 -0.0002362616 0.0015287383 -0.00042171654 -0.00011442518 0.0019749368 -0.0015288031 0.0038829865 -0.00071969954 0.0011208461 -0.0006094644 -0.0005493837 -0.0019568633 0.002913573 0.0024929836 0.0027065955 0.001367724 0.0035640108 0.0014881346 0.0033835026 -0.0036014442 -0.00015419489 -0.00242403 -0.0027584187 -0.00042064296 0.002051955 -0.0026606082 0.0031143047 -0.0029562064 0.0021115649 -0.00018868897 -0.0021365178 0.0017974873 -0.0010017041 -8.071425e-05 0.0034432227 -0.0025793803 -0.0036264758 -0.0025644857 0.00084733404 0.0030794707 0.0001372337 0.0013573046 -0.0033488786 -0.0026770097 -0.0012020494 0.002036697 0.0023512882 0.0035414915 -0.002126399 0.0003012021 -0.00019912458 -0.0010106084 -0.0018630885 -0.0013188923 -0.0017419712 -0.00043649264 0.00026720457 -0.00021854015 0.002148164 0.0016709982 -0.0010083244 -0.0018722462 -0.0022287809 0.00060267886 0.0028518068 -0.0035910264 -0.0002653564 -0.0022921627 -0.0038438786 0.00060972857 0.00029125813 -0.0012094455 0.0038468756 0.0012419374 -0.0036215114 -0.0010419546 -0.002047739 0.0014186449 -0.00081183517 0.0034212256 0.0028218743 -0.0031794463
8 0.001112569 0.0018844012 -0.00033614435 0.0036308246 0.0024614853 0.0030777354 -0.001240259 -0.0029552213 -0.0036855536 0.0017804416 -0.00083916145 -0.0005879694 -0.0012308338 -0.00027538819 -0.0038770572 -0.0026897513 -0.0033311646 7.621314e-05 0.001756437 0.0021040959 0.0015745792 -0.0024211917 -0.0021750918 -0.0036708857 -0.0009295873 0.0029799643 -0.0028779155 0.0022748148 0.001915783 -0.003319577 -0.0030390492 -0.0029673274 0.0035566099 0.003885597 -0.003891551 -0.0010883843 0.0017579248 -0.00021144244 -0.0019066711 0.0008029209 -0.0038001193 0.0027946536 -0.0014780164 -0.0010274036 -0.0032189472 0.0018715742 0.0033723353 0.002228851 -0.0032009222 0.0022762811 -0.0011472421 0.0023706295 -0.0010757134 0.00046438738 0.0006581394 -0.0031628886 0.0010983476 0.00013496962 -0.0015501222 -0.00094433915 0.00034146087 0.0038739566 -0.003862588 -0.003533142 -0.00024325155 -0.0016132377 -0.003767145 -0.0036552022 0.0006754332 0.0037001285 -0.0031916345 6.4334854e-05 0.00011397335 0.0022627688 0.0013546566 -0.00042082526 0.00045727362 0.0009274934 -0.0020962271 -0.001038932 -0.0025804013 -0.0023419491 0.0022342075 -0.0009172028 0.001344412 -0.0024518745 -0.0036261408 4.8113336e-05 -0.0024208752 -0.0016928192 0.00064959103 -0.0017890366 -0.0012476832 0.00078793283 0.00053762295 0.003654179 0.0031366916 0.0029955213 0.0037562447 0.0003237018 -0.0004311593 -0.0036222853 -0.0011318008 0.001187814 0.0007740359 -0.0012148629 -0.00010145818 0.0010181091 -0.0013282346 0.001994511 0.0010587862 -0.0019278876 -0.002133312 0.0037061884 0.002531751 -0.003475993 -0.0031484868 0.003250445 0.0011852053 -0.0014565331 -0.0017243422 0.00082404213 -0.0026150646 0.0014282615 -0.0024266 0.003836404 -0.0027390202 -0.0017177275
30 0.0003911319 -0.0016965449 -0.0027160088 0.003117188 0.0033669122 0.0035587365 -0.0018169456 -0.0030047877 0.000677344 0.002249879 0.0006794476 0.0013484337 0.0033046766 -0.0007826247 0.0011020892 -0.0015965059 -0.0024072027 -0.0017538366 -0.003860684 0.0035153783 -0.0027957533 0.00276822 -0.0015469361 0.00051565206 0.0006975937 0.0028487542 0.00045046222 -0.002924647 0.0036228402 0.0029907692 0.0025742096 0.0008821672 0.0029888914 -0.0007482114 0.00199883 0.002277446 0.0026973016 0.0031463478 0.0010524357 0.003789144 0.0037854884 -9.76552e-05 -0.0023562245 0.0008109698 0.001992869 0.00039102643 0.0016502446 -0.002631955 0.0025536513 0.0019104265 -0.0017013702 -0.0029085656 0.0014266339 0.0025848502 0.003226909 -0.00057249435 -0.0007640559 -0.0026258682 3.5502002e-05 0.0012699171 -0.003332527 -0.0015544634 0.0037731226 -0.0012518982 0.0008308681 -0.00377783 0.0002691492 -0.00049564464 0.00052129873 1.00122425e-05 0.002106293 -0.002449533 0.0008243663 0.00126321 0.0029042459 9.577656e-05 0.0013485276 -0.0019326973 -0.0034873474 0.0020607936 0.00011431861 -0.0010789157 0.0022752236 0.0006985689 -0.0028445628 0.0017211643 -0.002620804 0.002238319 0.0027941668 -0.002179747 -0.0010912166 -0.0031887672 -0.0016556134 -0.0024497625 -0.0022669458 0.000802273 -0.0017890884 -0.0022355511 0.0024094197 -0.0007525679 0.0015765738 0.0015212452 0.0024190468 0.00019865761 0.0019167648 -0.0015349176 6.586297e-05 0.003169879 0.0010126575 -0.0007506171 -0.0030078574 -0.0012003321 0.0008677051 -0.003277856 -0.002782297 -0.0031901984 -0.0014025627 -0.0026018461 4.391218e-05 -0.0006249242 0.0011490211 -0.0015012359 -0.0035316227 -0.0036805086 -0.0020394095 0.0032204923 0.0026511617 0.0033269362
7 0.0017111783 0.002100873 -0.002738043 -0.0009881319 0.003565331 -0.0015876736 3.8363076e-05 0.0037342499 -0.003810313 0.0030589334 0.0011362841 0.0005906351 -0.0032369096 -0.002639639 0.003381934 0.0029898644 0.00091350684 -5.5434746e-05 -0.0005772702 -0.0011947189 0.0019201668 2.3394741e-05 -0.0020463227 0.0018587994 -0.0026334422 -0.0036493302 0.0010430848 -0.0025129612 -0.00040340066 -0.0032011198 0.0018304149 0.000455223 0.003705482 -0.0015843621 0.00062075263 0.0025442995 0.0029409006 0.0038016953 0.0035694658 -0.0011816005 0.00048601473 -0.0036765325 0.00052733166 -0.0038826838 -0.0019431942 0.0031374642 0.0019707873 0.003438117 -0.0022060073 -0.00033374256 0.0018169504 0.002889546 0.0034889264 0.0017992484 -0.0033030207 0.0015767325 -0.0032518627 0.0036571033 0.0032938384 -0.002022317 -1.7976636e-05 -0.0022272125 0.0014450385 -3.6955303e-06 -0.0017948665 0.0036756438 0.0032045033 -0.002585532 -0.001915156 -0.00214031 0.002507883 0.0032870208 -0.003459656 -0.0014771583 0.00043878006 0.0018401938 -0.0035312027 0.0033943441 0.0026948454 -0.0028116014 -0.0026911218 0.0017744486 -0.00048368206 -0.001233371 0.0022281816 0.0006821249 0.003833132 -0.0037622643 -0.0031419343 0.002794351 -0.002684184 -0.00060993707 0.0038599535 0.003203007 0.0029631373 0.0022536272 -0.0009661068 -0.0019418801 -0.00074381666 -0.0011295214 0.0030960122 0.0034196416 -0.0019370131 -0.0032476212 1.3846762e-05 0.0029301185 -0.0033783114 0.0033176586 0.0021977061 0.0011798848 0.0017299866 -0.002728322 0.003494656 0.002415283 0.0010560479 -0.003390847 -0.003828929 0.0030389072 0.002696693 -0.0016975497 -0.0029387285 0.0032598716 -0.00014916997 -0.003136767 0.0011490433 -0.003846718 0.0011786415 0.00201934
31 0.0006057166 -0.0030869464 0.0038468218 -0.0030506528 0.0017697411 0.0011548661 0.003338397 -0.0019924375 0.0011923112 -0.0023943458 -0.0020811413 0.0020509898 0.0026506572 -0.0022902458 -0.0026830444 0.00044684758 -0.0014549895 0.0033916866 -0.0015163278 -0.001318369 -0.00040153362 -0.0024011459 0.0022956089 -0.0007776393 -0.0026429752 0.0025751626 -0.003888543 -0.0014054745 -0.0023467983 -0.0034043249 -0.0031663922 -0.0030439352 0.0031413801 -0.0008343099 -0.00061370904 0.0018227589 -0.0021988566 -0.00013630562 -0.0010930034 -0.0015659231 0.00073850475 0.002678316 -0.001604249 -0.0028097248 0.00097237807 0.0034110786 -0.0033859832 0.00022753012 -0.00027735165 0.0010982024 0.00046065048 -0.0017747054 -0.00016376349 -0.0034976755 -0.003685229 -0.0027032646 -0.0035445704 -0.0015812803 0.00061532465 -0.0021869687 -0.0026532416 -0.0013570908 0.0013049543 -0.0016798469 0.0007973425 -0.0014144824 0.0024089073 0.0006754648 0.0022026594 0.002979779 -0.0017929304 -0.003055024 -0.0020382071 -0.0026151112 0.000932052 0.0020727878 -0.0026487915 0.0029912456 0.0008935039 0.0026486653 -0.0030241692 -0.0025923261 -0.0034231257 -0.0022683342 0.000103210696 -0.0005527268 0.000900074 -0.00072725554 -0.002821906 0.0010766356 -0.0014823137 -0.003159191 0.0030653914 0.0034116441 0.0013371136 -0.002086388 0.0014640754 0.0026910605 -0.0007000889 -0.0022240696 -0.0010134759 -0.00038002824 0.0025278023 0.0019249477 0.0016807127 -0.0032756247 -0.0014997199 0.0007571596 0.0013697025 -0.0012649907 -0.002618424 0.0011467586 0.002961488 0.00025855965 0.0010565578 0.0010015037 -0.0021348312 -0.0019202469 0.003043587 0.002051601 -0.001984581 -0.00018065768 0.00080513867 -0.0007440184 -0.003877078 0.0038587719 0.0037856502 5.703578e-05
25 0.0032768697 -0.0037139666 -0.0022374282 0.00045927742 0.0004963648 -0.0031271358 0.0013367244 0.0016949448 -0.0003637982 0.002299038 -0.0023834333 -0.0023050231 0.0025623718 0.0018074454 3.3657725e-05 0.003868037 -0.002108433 -0.003024013 0.0018412987 0.0029386396 0.00064808066 -0.0007243902 0.001361894 -0.0038020648 0.0034235893 -0.0018095188 0.0032436505 -0.003833559 0.0037569974 0.0008053686 0.0025636728 -0.002419978 -0.0035255607 0.000806361 -0.002442864 0.0033516327 0.0016896791 -0.0029907753 0.0021131109 -0.0016752183 0.00050864293 0.0030009497 -0.00081667514 -0.0018571204 0.0027980271 0.003712458 0.0034653752 -0.0026362848 0.0018266953 0.0023781576 0.00063564064 0.0037204335 0.0003112037 0.00042572402 -0.0033331597 0.0011378444 0.00043510715 -0.0005405837 0.0037615881 -0.001541833 0.0010073237 -0.0020566094 -0.00014288347 -0.0028535046 0.0038796773 0.0028843202 -0.003101062 0.0026475424 0.0037844875 -0.0019834118 -0.0003429825 -0.0012054784 0.0035864885 0.0010906158 0.0003125516 -0.0015003575 -0.00019101668 0.00021841562 -0.0032636295 -0.001211471 -0.0002669237 0.0015878958 0.002713431 -0.0017360979 -0.0032075124 0.0039004334 -0.00044116905 -0.0020690172 -0.003058396 -0.0029860483 -0.00383218 -0.0010956465 0.0004978686 0.0018727485 0.0012420228 0.0026891816 0.0026215585 -0.0009023376 -0.0019749154 -0.0030018063 0.0013557625 -0.0029652002 -0.0034533378 -0.0029978633 -0.00014727125 -0.002135575 -0.0026475894 2.3484583e-05 -0.0015115337 0.0025149416 0.00075696147 -0.0019262207 0.002700395 0.0014618709 -0.00012915418 0.002859875 0.0022754224 -0.0015015559 -0.0011329339 -0.0010845326 0.003128677 -0.00047947295 0.0036167074 0.0020297647 1.241353e-05 -0.0015116251 0.002146467 0.0005119108
11 0.0037920016 -0.0031498794 0.0025138827 -0.003104947 0.0002272256 4.251767e-05 0.0008959729 0.00057327666 0.0010982002 -0.002989891 0.001188277 0.0024470524 0.0019215345 0.0013548252 -0.0028172808 0.0018100888 0.0001598952 -0.00011280998 0.00020689407 0.0037354443 0.0034931123 0.0025098312 -0.0031935696 0.0035690025 -0.00107325 0.0006641379 0.0030940094 0.0032483502 -0.0021004209 -0.0016928504 0.0036640186 0.0020604518 0.0010537314 0.0017392136 0.003414215 0.0025784671 -0.0029389018 -0.0038260587 0.0010022209 0.0011963355 0.000193101 0.0011777837 -0.0018491364 0.0002839489 -0.0025438846 0.0010562805 0.00025580885 -0.0007233791 0.0008155588 -0.003143901 0.0015124117 0.0010025055 -0.0035478699 -6.205933e-05 0.0021897424 -0.0005087354 0.0021416626 -0.0035133925 -0.0012915449 -0.0015637099 -0.0036772133 -0.00078170723 -0.0021291876 0.0011217145 0.0004455444 0.0018850775 -0.0015508778 0.0012434083 0.003657144 -0.003333182 0.00047660136 -0.0022118855 0.00018744545 0.003674988 0.0013768269 0.0024747988 0.0032675832 -0.0032168136 -0.003295125 0.003441438 -0.0016970091 0.0008008921 0.0013487434 0.0019766032 0.000108987864 -0.003049739 -0.002486149 0.0024924453 -0.003510684 -9.699352e-05 -0.00083861366 -0.0024377322 -0.00279276 0.0037428353 -0.00058620115 -0.0019424878 0.0022458993 0.0017327153 -0.0021711595 0.0014459955 -0.00047080716 -0.0024900618 0.0029432876 0.0025773188 -0.0032621105 0.0012022743 -0.0015740583 0.001209544 0.0033698238 0.0037934773 -0.00024959008 -0.003393599 -0.0017973193 0.0022961868 -0.0034275611 0.0018014219 -0.00061693275 0.00223373 -0.00029199355 -0.001310052 0.00030658484 -0.0011108415 -0.00048744044 -0.0034550217 -0.0033607627 0.0005576272 0.003232674 0.0028354686
20 0.0030459256 -0.0010010153 -0.0030272729 -0.002914348 0.0020322027 0.0036214679 -0.0036746606 -0.0010907633 -0.0009887309 0.00015473073 0.003598855 0.0030710765 -0.0038222342 0.0030506647 0.0014177545 -0.00030565384 0.0031194969 -0.003361249 0.0033910107 0.002227288 -0.00381708 -0.0020968032 0.0026531909 0.00072361104 0.003157444 -0.003845439 -0.0016956406 -0.00095802994 0.0016038293 -0.0021765942 -0.0038566086 0.0006762627 0.00069775374 -0.00054328894 0.0020418968 0.0025918258 0.0020306467 -0.0026329933 -0.00082635117 -0.0028546778 0.0037017143 -0.00186096 0.0037801715 0.00048109307 -3.9649298e-05 -0.0013000346 0.0035672414 0.0004890984 0.002561786 0.00038257192 0.0024147166 -0.0037242793 0.001515686 0.00082405156 -0.0038143578 0.002141952 0.0028914567 0.0013429031 0.0028232133 0.0038490405 0.0034592603 0.0001018269 0.0006639906 -0.0029557736 -0.0009295174 -0.0008092104 0.0030579886 0.0001684058 -0.002129228 0.001828463 -0.0009670839 -0.0034823976 0.0026924054 0.0025035932 -0.0025817342 0.0028111187 -0.0025781028 -0.002907118 0.0021831905 0.0020644888 -0.0010375805 0.002737756 -0.0033478963 -0.000734347 0.0019641805 -0.002489297 -0.0025795759 -0.0013060287 0.0023393242 -0.0011757638 0.00088267634 0.0016598743 -0.0033185175 0.0024813234 -0.0020126677 0.003571349 -0.0020691282 -0.0006188719 -0.00010071316 0.003038087 0.0025150205 -0.002783871 -0.0017130838 -0.0001759733 0.00080016826 -0.0018671971 0.0008091778 -0.0038809262 -0.00045113044 -0.0001366764 0.0018155171 0.0016101461 0.0029504013 -0.002245735 0.0018107637 0.0007778268 -0.001378562 0.0014639384 -0.0024792796 0.0035047638 -0.0018248232 -0.0016000763 -0.0017808425 0.0009958665 -0.0016535537 -0.0010601273 0.0020671485 -0.000929519
5 -0.0007121474 0.0035304942 -0.0031450244 -0.00026053813 0.0005856007 -0.0030447661 -0.0035571693 0.0026775901 0.0004624567 -0.0006379443 0.0015333573 0.0035024197 0.0010111043 0.001198857 0.0012299186 -0.0022025264 0.003154073 -0.0015269646 -3.477424e-05 0.00029358515 -0.0008129551 -0.00218166 -0.00023439483 -0.0015026428 0.0014371959 -0.0011622839 -0.0012733911 -0.001827267 0.001035954 0.0034984457 -0.0004400981 -0.0035768554 0.0030541527 -0.00030072202 5.6736568e-05 -0.0007100392 -0.0011903846 0.00010816056 0.00076855364 0.00015739698 0.0013526732 0.0017447512 -0.0008471925 0.0020799367 -0.0030244773 -0.0028148738 0.0029236889 0.0024060842 0.003659544 0.00015003105 0.0032764452 -0.0014050163 -0.0037703034 -0.0010834621 0.0011275361 -0.001962047 0.002778885 0.0029343567 0.0014575467 -0.0011220335 -0.003108078 0.0022016473 0.0034382713 -0.00012394931 0.0011466724 0.0014100402 -0.0015440526 -9.820589e-05 -0.0018779839 -0.002057461 -0.0034592433 0.0018354963 0.0017775585 0.0016144842 -0.00066526426 -0.0036531996 -0.0019272745 0.0036200967 -0.0009604336 -0.00054350164 0.002388629 -0.002790573 -0.00214983 -0.0031012676 0.0029640684 0.0013868473 -0.001544575 -0.0016173787 0.0032542078 0.0007486238 0.0035619142 -0.00027982748 -0.002531576 0.0031895724 -0.0027989745 -0.0014853645 -0.0027983983 0.0016484958 0.00010920098 -0.0033184106 -0.0006991812 0.0033798222 -0.002069294 0.0020113497 0.0010036746 0.0007871487 0.0021244383 0.0012752847 -0.00364923 0.0033917536 -0.0038766696 0.0034437734 -0.0029202907 -0.00091995223 -0.0036028083 0.0020365848 2.565471e-05 0.003504043 -0.0011794312 -0.003676746 -0.00024011244 -0.0023051456 -0.0010143836 0.0003079255 0.0028104086 0.0008014211 0.0015087806 0.00015324296
26 -0.0038188363 0.0015631429 -0.0036307196 0.0019094055 0.002326267 0.0012328142 0.003393289 -0.0021741237 0.0019054617 -0.0024241696 0.0003296493 0.0033391844 0.0028676866 -0.0021471244 -0.0026776912 0.0037936957 0.0023989147 0.00039113397 0.0032820075 -0.0009206232 -0.0009985666 0.00029503347 -0.00015040659 -0.00036471934 -0.0032382258 0.0010467998 -0.00047538354 0.00032689 0.0021130028 0.0016050515 -0.00327595 -0.0035131427 -0.00092355435 -0.0014259802 -0.00046188003 0.0025028824 -0.0004141817 -0.0010614361 0.001360423 -0.0013494088 -0.0020961906 0.002679006 -0.0036417318 0.002112291 0.0023760328 0.0025994196 0.003355408 -0.0025188355 -0.0026494928 0.0015788208 0.0035603906 -0.0018945691 0.0022638794 -0.0006911145 -0.0034808768 -0.00018469254 0.0034757638 0.0030094534 0.0035039508 -0.0033215266 0.0015770078 0.0037031118 0.0035833586 0.0036973648 0.002126121 0.0030574508 0.0029569645 -0.0009402097 0.0025049713 0.00089109613 -0.0004521571 0.0025514509 0.00025205238 0.0019487548 0.00229292 -0.0036414447 -0.0038807245 -0.0015928552 0.0027697722 0.0007514869 -0.002104567 -0.0020286497 -0.00092035317 0.0029887743 -0.0008711792 0.0033797263 0.0005713852 -0.0026619884 -0.002626206 -0.0032053464 -0.0007249651 -0.0011054144 -0.0035685587 -0.0015770609 -0.0038859518 -0.0012807079 0.0016118174 -0.0011045552 0.0024881056 0.0035377627 0.0024507586 -0.003186842 0.000738635 0.0032193465 -0.0015461944 0.003631154 -0.0018887834 0.0011862449 0.0019421749 -0.0013515862 0.0024155967 -0.0024713865 9.012745e-05 0.0006886088 -0.0021321464 -0.0026941733 0.0037906587 0.0016341507 -0.0005108869 0.0009933773 -0.0003082803 -0.00029949014 0.0016956674 0.0024768643 0.0023728635 0.0016650716 0.0034523977 -0.0016031978
29 -0.0009362807 -0.0013574866 0.0015236308 -0.00012310913 -0.0023132435 -0.0023700453 -0.0011921121 0.0038486929 0.0023277923 -0.0018732623 -0.0013372061 0.0024202806 -0.00050533196 -0.0017608805 0.003851067 -0.001399149 -0.0029128436 0.00038904624 -0.0031487592 0.0020782475 -0.0014785838 -0.000578842 -0.000524796 -0.0010501429 0.00020417036 -0.0029180378 0.0027580035 -0.00018118676 -0.000723541 -0.0016498008 0.00017082691 0.003173738 -0.0008937164 0.0036902803 -0.00093740533 -0.00018119835 0.0022548484 0.0016344734 -0.0036779996 0.0022929495 0.0015983313 -0.0026990292 -0.00065679563 0.0033181207 0.0024551407 -0.002762875 -0.0015549628 -0.0015367705 0.0020380854 -0.000118673845 -0.0029125544 0.00033264962 0.0017989723 -0.0004944973 0.00017858917 0.003596831 -0.0036683762 0.0006792905 -0.003533477 0.0034435051 0.0010149146 0.0012662666 -0.0016782895 -0.0022411298 -0.0028900325 -0.00039065874 0.002920101 -0.0027972325 -0.0035381273 0.0008283224 -0.0017500846 -0.0018211915 0.0022476297 0.0007092 -0.00054885127 -0.0021348821 0.0022990138 -0.0035026958 0.002735115 0.0014271941 0.0021566688 -0.0011566374 0.0002498185 0.00043038474 -0.0018951633 -0.0018160762 0.0019308119 0.002120996 -0.0030770986 -0.0028949133 0.0032827428 -0.0011566933 -0.0036467356 -0.0010093137 0.0019526988 -0.002481202 -0.0017399073 0.0012871507 -0.002906657 0.00033862857 -0.0022719412 -0.0038483732 0.002112057 -0.0010834198 0.0004821736 -0.002817731 -0.00086241605 0.0011971832 0.0021042642 0.0014792891 -0.0013332873 0.0036134392 -0.0019122801 -0.0030953437 0.0016047443 0.001961002 -0.00028481625 -0.0036771612 0.0022081814 0.0009755293 0.0029960056 -0.0015080106 -0.0035447124 0.0011629942 -0.00064219366 -0.00092571223 -0.00026590424 0.002570702
16 0.0035801798 -0.0009774824 -0.001690544 -0.0036203281 -0.0028541046 -0.003371539 -0.002553893 -0.0030132036 0.0034582785 2.5634989e-05 -0.0013909658 -0.003843856 -0.0031159662 0.0019940343 0.001496448 -0.00078004214 0.00030521222 -0.003527439 -0.00012892045 -0.0007654631 0.003108581 0.001797079 0.0016993601 0.002664169 -0.0031540135 5.8628746e-05 -0.00073964684 -0.0024498221 0.0012019904 -0.0034302305 -0.0029846847 0.0020803993 -0.0018483652 -0.00042083292 -0.0024755881 0.0035120114 0.0037484034 -0.0014821377 -0.0007775883 -0.000774415 0.0030909341 -0.0030987742 0.0020113848 -0.002879141 -0.0029710643 -0.0002641284 8.9419635e-05 0.0011031829 0.0023899947 0.0031544412 0.0003572357 -0.0033198772 0.0030718374 -0.0023032655 -0.00043745042 0.0036258488 0.0027193308 -0.0031451636 0.0030626885 -0.0011389784 0.0013225069 -0.0036013445 -0.0016866227 0.003603953 -0.0022304023 0.0024839418 -0.00095880515 -0.0005398209 0.0006165501 0.0028828946 0.0002648174 0.0010989562 -0.0023501348 -0.0007240857 -0.0014604345 -0.0025591098 -0.0009773859 -0.002527091 0.0005739146 0.0009853651 -0.0010230814 -0.0017550936 0.0013559853 0.0019832542 -0.0010973071 0.002008666 0.0020336153 -0.0028465712 0.001973337 -0.0026332056 0.0033268319 0.0026061307 0.0020611046 -0.0030473159 -0.0019063076 -0.0025093327 0.0020130859 -0.00062434946 -0.0016924898 0.0018043069 -0.0011030382 0.0005059631 0.0036172206 -0.003037669 0.0036739262 -0.0008660207 -0.0031357247 0.0033904118 -0.0019218647 0.0009906868 0.002873761 -0.0010475833 -0.0023988502 0.0031069252 0.0038547458 0.00030638397 0.001416338 -0.0014259631 0.0014678697 -0.00026097073 -0.0011865556 -0.0020800522 -0.0017710073 0.00025641866 -0.0011571352 0.0024136591 -0.0037866132 -0.0018975422
13 0.001362371 -0.00029964143 0.0035288362 0.0006268879 0.0009284306 0.0034620473 0.002002287 -0.0035033347 -0.0034487387 -0.0030180614 0.0021979974 0.0012653277 -0.0002164392 -0.0008667857 -0.0030481722 -0.0016154113 0.0006490952 -0.0030053125 0.0032372072 -0.0025824232 0.0022226404 0.0012088706 0.00047551515 0.0012088218 0.0022396639 -0.0021537174 -0.0022215913 0.0002719806 -0.0012795083 -0.0006306763 -0.0038808659 0.0009198353 0.0016984155 -0.0021087178 -0.00057941617 0.0038830137 -0.0021718848 -0.0026001185 -0.0007731433 -0.002881288 -0.0017080725 -0.001569011 0.0022456346 -0.00012554444 0.0024170894 0.0029109486 0.003640931 -9.461737e-05 0.0015312759 0.0020446216 0.0022723689 0.002549656 0.0016480914 -4.6572128e-05 0.00034455492 -0.0006551472 0.003822735 -0.0034593581 0.0022115563 0.0035733425 0.0017102928 -0.0009029057 -0.0018732612 0.0018881061 -0.0030893458 0.0013929062 -0.002251016 0.0023312492 -0.0014156748 -0.003002585 0.0013914458 0.0030814528 -0.00030985923 0.00045405555 -0.00065282517 -0.0037136883 -0.00076280383 0.0011365694 0.00034165382 -0.003742058 -0.00017562568 0.003056021 -0.0023821227 -0.0021659571 0.003374313 0.000120424025 0.0012577202 -0.003812456 0.003713304 0.0036388764 -0.0006952371 -0.00041779355 -0.0019553297 -0.0034038122 0.00250935 0.0007226603 0.0029713404 0.0020350164 0.0010650052 0.0009097821 -0.0031780312 0.0019353653 -0.0004267472 -0.0032952968 0.002693177 -0.0020954565 -0.001636978 -0.0009116636 0.000940981 0.001978293 0.0018889887 -0.000968931 0.0033969816 0.003824134 -0.001265728 0.0035066886 -0.00014434215 0.0032335324 -0.0026704464 -0.0032993203 0.0011366236 0.0037124772 -0.0015148508 0.0012399628 0.003593845 0.0033489096 -0.003852371 0.0005489113
23 0.00054270995 0.001226764 0.0037504327 0.00078612927 -0.0038329016 -0.0034135156 -0.0034348005 0.0024757236 -0.003485086 -0.001237654 0.0036975858 -0.0016708084 -0.0039060481 -0.003714071 0.0034609244 -0.003302606 0.0011017651 -0.0011503679 0.0015274367 0.0023866494 0.00373297 0.00054466934 0.0038450493 0.0038696325 0.002221442 -0.0016219373 -0.002223552 -0.0011614694 -0.003570952 -0.0034676632 -0.0025846995 -0.0011281427 0.0007269961 -0.0009990099 -0.0010008006 -0.0018149758 0.0038856282 -0.0034256645 -0.003652365 0.00017717545 0.0013803088 0.0011965135 0.0038195003 -0.0037742846 0.001119252 -0.0013034851 -0.0009808249 0.0038427198 -0.0006857465 0.0011072771 0.00045826417 0.003175957 0.003046035 0.0022262032 0.0038985766 -0.0035296562 -0.003777342 -0.0019278846 0.002461666 -0.0011699278 0.0005787652 0.00120858 -0.00022170768 0.0038835178 -0.0022393202 0.0019183283 -0.00072967494 -0.0012326363 0.0008884369 0.0032968917 0.003253663 -0.0008757656 -0.0014042702 -0.00092068664 -0.0011497927 0.0038275148 0.00091354485 0.0006240625 -0.0025423376 -0.0015419641 -0.0004966528 0.00046531658 0.0019752884 0.0032706861 -0.00044788525 -0.0033686003 0.0032232404 0.0022285688 0.0030558235 -0.0031651624 -0.0017344916 -0.0023530098 -0.001159311 -0.0021402268 -0.0037736455 0.00011365765 0.0026449864 0.0030042308 0.0019476878 -0.00012643341 0.0026179913 0.0012233863 -0.002335014 0.0020490342 0.0025028072 -0.0010733163 0.0025009844 -0.0015413783 -0.00092405215 0.0023305337 0.0017627521 -0.00353742 0.0007860344 0.0019327925 0.00077946286 -0.0009922094 -0.0037599115 0.0022066727 0.0033381546 -0.0033165847 -0.0017655243 0.0028675518 0.0019850037 -0.0011289245 0.00043555378 -3.1163447e-05 0.0026914133 0.002739139
15 -0.00049279985 -0.003009745 -0.00092776836 -0.0011809394 0.00096655695 -0.003363762 0.0026918591 0.003065612 0.0013872858 0.0019849401 0.003454767 0.00022460843 -0.003722394 -0.0017253368 3.8598893e-05 0.0024568245 -0.00022331241 -0.0024147993 -0.0019940669 0.0034573062 -0.0024722682 0.0015646925 -0.0030296356 0.00016469718 0.0007620748 -0.002666312 -0.0027687259 0.0021468557 -0.00036138378 0.000707751 0.00058639684 -0.00092347694 -0.0022506106 -0.001639339 -0.0020064497 0.0005790325 -0.0019478959 0.0018986311 -0.0008217265 -0.000859324 0.0014276707 0.0009870857 -0.0016902402 -0.0031024562 0.0010039818 -0.0035034248 0.001674452 0.0037254312 -0.0031655806 0.00022119773 0.00036679758 0.0027312625 0.0015786233 -0.0023422698 -0.0014534745 0.000551722 -0.0024488883 0.0015111358 0.0035716835 -0.0035031694 0.0037035686 -0.00034007625 0.00041266918 0.0037610477 0.003271269 -0.003637238 0.0025668002 0.0036540765 -0.0032303182 -0.001881769 -0.0035392216 -0.002706488 0.0035125988 0.0025152955 -0.001147919 -0.0035584315 0.003396457 -9.894671e-05 -7.7849254e-05 3.7891812e-05 0.0005459278 -0.0035773353 -0.0031424023 -3.281427e-05 0.00023457434 0.0032230883 0.0012565939 0.0018738977 -0.001862137 -0.0019639886 -0.0035183055 -0.0022659453 -0.0011086793 -0.0013389542 0.0020616031 -0.0022756972 -7.866092e-05 0.0011546983 0.0034836817 0.001254084 0.001315339 -0.002074108 -0.0030854833 -0.0022962356 -0.0034187646 -0.003564357 -0.0002210656 -0.0007736457 0.003758255 -0.0012841334 -0.0017072778 -0.0011598491 -0.0033434643 -0.0037027162 0.0006600948 0.002316665 -6.42963e-05 0.00014344284 -0.0025331534 0.0010444582 -0.0021000467 0.0029993313 0.0018555077 -0.0010175707 -0.0026118814 -0.00059082726 0.002569102 -0.0017469332
10 0.0026517175 9.9137964e-05 -0.0024632998 -0.00012167522 -0.0015991627 0.0032546837 0.00035510882 -0.00089496345 0.0026840693 0.0010727005 0.001081264 0.0007292251 -0.0023432397 -0.0011957741 0.0038422367 -0.0035960968 0.0012826833 0.00010033711 -0.001575382 0.0029856183 0.0026891965 0.0020268273 0.003449148 0.00069331826 0.0018254304 0.001423668 0.0015402425 0.00028469952 0.002626137 -0.0018043455 0.002719028 0.002812844 0.00025511344 0.0017522353 -0.0022792376 -0.00053887645 -0.0033286558 0.0019256427 -0.0011070204 -0.001834901 -0.0004957648 -0.0010637271 0.0033053064 -0.0025401623 0.0034795557 0.00060572656 -0.0030586487 0.00384625 -0.0019004775 -0.00362346 0.0011521702 0.00061032706 -0.0008013747 -0.0027554717 -0.003608129 -0.003459226 0.00319415 0.002242171 -0.0033270747 -0.00044839614 -0.00014477404 -0.0021789875 -0.00070782896 -0.0018820286 0.0018916862 -0.0021371318 -0.002231304 0.0023782747 0.002674807 0.0015192004 0.0028463786 0.0036234253 -0.0005000539 0.0037711372 0.0030119396 0.003515497 0.0032063269 -0.00058326696 0.0034593502 0.00015678929 0.0005137977 0.0038769841 -0.0024989531 0.0021949587 -0.0011054564 -0.0033735808 0.0033036503 0.0038085093 -0.00034810166 -0.0017683518 -0.0017000258 6.062911e-05 -0.0036991644 0.0020791783 -0.0016792611 -0.0036731272 -0.0011120967 -0.0013983138 -0.0036729889 0.00048121184 -0.002795977 -0.001238107 -0.0017290757 -0.00091856765 0.0023046522 -0.00032514086 -0.0011841872 -0.0020350392 -0.0025910554 0.0014207689 0.0031663692 0.0019054628 -0.0031555553 0.0005902955 0.001359109 0.0032444238 0.0016188358 0.0018222167 0.0009815705 0.00197554 0.0015939305 -0.0011994392 -0.0038143843 0.00039683704 -0.00040305295 -0.0025493626 0.0014740234 -0.0020608737
22 -0.0027169357 -0.0030688725 -0.0014678362 -0.0026616764 -0.000472988 -0.0010702386 0.0012256929 0.0011295772 -0.00089666276 0.00032001146 -0.0025441723 -0.0027172884 0.0010350087 0.000557635 -0.0017644006 -0.0026745913 0.0006453007 0.0009551166 -8.01285e-05 -0.0031233805 0.0004215636 0.0007353296 -0.0021362551 0.0009549091 -0.0006665173 0.000524587 0.0028968474 0.0003229902 -0.0006482485 0.0038075398 0.0025466762 -0.002506832 -0.0007143826 0.0016254373 0.0035663315 0.0012708935 -0.003663927 0.0015781681 0.00017698771 0.002501042 -0.0038106167 0.0032295212 -0.00067536597 0.0035147122 0.0011198525 -0.0019458509 0.0021332314 0.0014101088 6.2472354e-05 -0.0035681606 0.0015651659 0.0018900639 0.0009562731 -0.00081565825 -0.00050536514 -0.0023661866 0.0020473588 -0.0035728663 0.0027755224 0.0035466398 0.0032186573 -0.000866675 0.00018212627 -0.0029731104 0.000671967 -0.0038320255 0.00087855826 -0.0027171255 0.0021177647 -0.0004720526 -0.0026363363 -0.0014148992 0.003121094 -0.0029637688 0.0034249735 -0.0013043018 0.0017084064 -0.0016977676 6.6372435e-05 0.0001889615 0.0014288089 0.002598732 -0.0020636255 -0.0035058302 0.0015795724 -0.0011966062 0.002821989 0.00064420846 -0.000340995 -0.0014956243 -0.001052589 -0.002599767 0.0038573013 -0.0027114616 0.0026144052 -0.0028507137 0.0032893466 -0.0031238818 0.003308562 -0.0014591019 -0.0032523489 -0.0030014226 -0.0018859287 -0.0021498832 -0.0014325076 0.0016235762 0.002509481 -0.00011690813 -0.0019482571 0.0007438215 0.0017069001 0.00093796756 0.0028137988 -0.0028792506 0.0001242814 -0.00081218284 0.0005130839 -0.0020649252 -0.0004969632 0.0016953929 0.0022767808 0.0023543208 -2.9976945e-05 -0.0018405706 -0.0014731495 0.00033852694 -5.1452273e-05 -2.728466e-05
18 0.002314145 0.0036187412 -0.0008528215 0.0020718395 -0.0023150898 -0.0037148274 -0.002703351 -0.00055764674 0.002269759 -0.0019561793 0.0013641584 0.0013570406 -9.227505e-05 0.0027778628 -9.4971714e-05 0.0033652817 0.0010907879 0.0011208112 -0.0013234639 0.0011228735 -0.0038879104 0.0034380874 -0.0016823491 0.0018540716 0.0011678017 -0.0024395392 0.0032855358 0.00038569066 0.00024960976 0.0029292547 0.0008731168 -0.0024575074 -0.0029276726 -0.001949786 0.0012118816 -0.0010251882 -0.00033592733 0.0035440945 0.0019784784 -0.0014884421 0.0003997739 -0.003806705 -0.002233099 0.001883822 -0.0023058865 0.0009215084 -0.0034117075 -0.0017245767 0.0024180538 -0.0004212832 0.0010431968 -0.0027596466 -0.0032678905 0.0021303853 -6.253405e-05 -0.0002496476 0.0012773977 0.0017523277 0.0022722227 -0.002062974 0.0015506437 0.0025454964 -0.00062274607 0.00067454326 -0.003693379 -0.00049311534 -0.0029702515 0.0037335497 -0.00063951785 -0.0037668073 0.00090453494 0.002950608 0.0019115355 0.0033065712 0.00014026884 -0.003619116 0.0006312896 0.002733479 -0.0020936371 0.003242131 0.0013891715 -0.0030150139 0.0015802879 -0.0025612134 0.0012295694 0.0020982057 0.003899192 -0.001026383 -0.0024671687 0.0015966265 -0.0004569131 0.002379547 0.0021272516 0.00023966168 -0.0010375307 -0.0019260729 0.002350392 0.003719553 0.0023321281 -0.00064962276 -0.0025495922 0.0026423018 -0.0012174735 -0.0024977336 0.0038735794 -0.0037422786 -0.0025269103 -0.0017255576 -0.0018819651 -0.0014543639 -0.0028834234 0.00047269496 -0.0017823523 -0.0025478844 -0.00095403567 -0.00060943025 -0.0027177366 0.00040778652 0.000807507 0.0015568621 -0.00369765 -0.000306409 -0.0010146877 -0.0017057585 -0.0005993762 0.00241543 -0.00046426 -0.003398503
21 -0.002361629 0.0022309197 -0.0015839037 -0.00069053663 0.0030704748 0.0031758423 -0.002985997 -0.0005216883 -0.0038442535 0.0038589402 -0.0021208897 0.0030640499 -0.0025691066 -0.0027947829 -0.0031252045 0.0035729376 6.299721e-05 0.0017399929 0.0034073293 0.0019410221 0.0009560317 -0.0005848042 0.00075094734 -0.0031050073 -0.0024191178 0.0009732638 0.0029277336 -0.0025108235 -0.0016405588 0.0023984397 0.0031148517 0.0029524015 0.0014649257 -0.0010366157 -0.00295682 0.0010903873 -0.0028692512 -4.2442825e-06 0.0038831865 -0.00031039104 0.0036355043 0.0028717557 -0.0015639478 -7.3615747e-06 0.0012892383 -0.0022966252 -0.003132244 0.0028396412 -0.0031814813 -0.0011163227 -0.0034631346 0.002114055 0.0028409818 -0.0026438795 0.00040524185 -0.0038346932 -0.0019928585 -0.0017786886 0.00043932113 -0.0019710322 -0.0023611502 0.003250761 0.00014822051 -0.00078868965 0.002314148 0.002614853 -0.00073050807 -0.0014575497 -0.0015718051 -0.0014224867 0.00032126193 -0.00031888034 0.00020169643 -0.0021773428 -0.0030098003 0.0034318755 0.0037469456 -0.0031351908 -0.0019436807 0.0007568038 -0.0010580797 -0.00018448035 0.0012975952 -0.0011010296 -0.0033174963 -0.0029487577 -0.0029388545 0.00057523855 0.0022721856 -0.0020433743 -0.0031770587 0.000938303 -0.0038769962 -0.0028667122 0.0011272909 0.001954715 -0.0032453772 0.0036408193 0.0017082432 6.5708955e-05 0.0034109133 -0.0023828335 0.0028629699 0.0032532876 -0.0013155546 -0.0006019118 -0.00044470487 -0.0027456007 -0.0021560767 0.0024493313 -0.0030845257 -0.00047850044 0.0029432818 0.0016424822 0.0025770352 -0.00029140484 -0.001558745 -0.00061242044 0.0010903827 0.000115953335 0.003402283 0.00022373299 -0.0013529557 -9.4892945e-05 0.0014526022 -0.0031883686 -0.0018441105 -0.00041222433
17 -0.0021031413 0.002003639 -0.0036403511 0.0023199816 0.00373745 0.002602315 0.0033970173 0.0030515292 0.0029242293 0.0008997199 -0.00021711405 -0.000690643 -0.0029961595 0.0034328788 0.0019406645 -0.0024608418 -0.0012446131 0.0010474594 0.0020144805 0.0018790499 0.0029139454 0.0028533963 5.343663e-05 -0.0008878248 0.0013053745 -0.0037308352 0.0025880386 -0.0028234797 -0.0035792913 -0.0005397914 -0.0027853325 0.00092390657 0.0008390796 -0.00029779773 0.0033104783 -0.001664871 -0.001313772 0.0025805614 -0.001722431 -0.0028545537 -0.0026576235 -0.0033045018 0.0033444357 -0.003781487 -0.002427333 0.0008626432 0.00038131146 0.00047918168 -0.0026842486 0.001063093 0.002288165 -0.0020996504 0.0038570096 -0.0012197966 -0.0033208304 0.0028903019 -0.0012576602 0.0026045328 -0.0012244653 -0.0014018484 0.00304195 0.0021487991 -0.0002721552 -0.0009372604 -0.0018534602 -0.00367719 -0.002898223 -0.00023942035 0.0026733142 -0.0009626855 -0.002170595 -0.0025749123 0.00086363184 -0.0009499226 -4.6311052e-05 0.0019701628 -0.0033585462 -0.00033092484 -0.0018158943 -0.0026062934 -0.0025853142 0.0035010576 0.001658893 0.0016815283 -0.002678581 0.00019589828 -0.0002848294 0.0014626487 0.002780821 -0.0009282425 0.0031355915 0.0022837466 -0.00064995367 0.0007283796 0.003553083 0.0019303556 0.0016091688 -0.0015163156 -0.002736503 0.0023848012 -0.0032371483 0.0032299065 -0.0036388373 -0.0012411177 -0.0023217865 -0.0023800333 0.003494238 -0.00051574555 -0.0014967632 -2.1181546e-05 -0.0033258426 0.0019673365 0.0030844803 0.0037216824 -0.0025105104 0.00093819964 0.0012014845 0.0017557252 -0.0018928365 -0.0004773307 -0.0016034401 -0.0030442006 0.0016755767 0.0010977067 0.0027634215 -0.0012842645 -8.228406e-05 0.0024354837
27 0.0018011479 0.00020498797 -0.0022719426 0.0022667155 0.001919083 -0.0022042014 -0.0015108867 -0.0003872153 -0.0015819084 -0.003294327 -0.0034126802 -0.0025678435 0.0029541065 0.002130836 0.0031925726 0.0016144433 -0.0027413042 0.0037024894 0.0012278857 -5.2277064e-05 -0.00038752714 0.0015516173 -0.0006630048 -0.0024379925 0.000692066 0.00024975772 -0.0038395973 -0.0012289226 -0.0031575381 0.0009534823 -0.0017873911 -0.0013008963 0.003072642 0.0018621568 0.0033067507 -0.0007327619 -0.003052102 -0.0035266222 -0.002195285 -0.0019786805 -0.00010222065 0.00025862743 0.0030536617 -0.0015852564 0.0018205864 0.0006854448 0.0012162451 0.0005341785 -0.0017279154 0.0031637147 2.8422824e-05 -0.0033534113 -0.0008437422 -0.0023931663 0.0019780553 0.0016147873 0.0021130107 -0.00013683565 0.0014465754 0.0029566176 -0.0031456253 -0.0029063777 -0.0003207572 0.0032401402 -0.0017720237 -0.0017992321 0.0011644847 -0.0013387001 -0.0028317228 0.00014213398 0.002303494 -0.0026308156 0.0037956277 0.00052887906 -0.003446825 0.002857695 -0.0012632868 0.0013861312 0.0012519369 -0.000280714 0.0022870195 0.00021226422 0.0033219464 0.00036935162 0.00027302204 0.0016115037 0.00194173 -0.0017302677 0.0038405 0.003455217 -0.0027886163 0.0015663735 -0.003813371 -0.0032518546 -0.0019643386 -0.00067907525 -0.00050981605 -0.0012448992 0.0007951858 0.0006295391 0.0035989683 -0.0022055446 0.00016320746 0.0021369169 0.0021757048 0.0013997395 0.0018034322 -0.002163716 0.0027134975 0.00032660918 0.0006922386 0.0037737659 -0.001974581 0.0023751045 -0.0013007305 0.00011453177 -0.0009103843 0.0013033538 0.0026830507 0.0014922116 0.0014629599 -0.0009543478 -0.00088480883 0.00096296426 0.0034553711 0.00039165793 -0.00039725605 -0.00255074
19 -0.0037216055 0.0036739483 -0.003199129 0.00058774377 -0.00014577365 -0.00079178944 -0.0025475293 -0.0012104661 0.0023913588 -0.0032520497 0.00301319 0.00046255923 0.0010514925 -0.0016887273 0.0006348254 0.0007916028 -2.6203521e-05 -0.0021267575 0.0036802017 0.0038198067 -0.002552484 0.0018090681 0.0011084715 -0.0036743132 -0.00048190105 0.001763633 0.0031849563 -0.0032764513 0.0027988367 0.0033464532 0.00066723634 -0.0032713474 0.0028833128 0.0035307177 -0.0027772407 -0.003431527 0.0011034006 -0.00020138451 0.0037966492 -0.0025896928 0.0008860644 0.0015581243 -0.0003143459 -0.0029983579 -0.0022235895 0.0006690747 0.0010710172 -0.00044480409 -0.0024354658 0.002817605 0.0034252536 0.0018778815 0.00094438257 0.0001359733 -0.0023599477 0.0003027847 0.0032689462 0.0029528413 0.0030078809 -0.0027927577 -0.002587943 -0.003165268 0.0022430473 0.0025119323 0.0018509018 0.0013930218 0.0026805943 -0.0007975731 -0.003459463 0.00038101227 -0.0035187854 -0.0031920637 -0.0012995192 -0.0037016813 -0.00061118713 -0.00021889206 -0.0028316642 -0.00212503 -0.0018169525 0.00036875825 0.00045540853 -0.0014735936 -0.0023647468 -0.0017416455 0.0028792564 -1.4387243e-05 0.003094041 0.0005074057 -0.00032171453 -0.002089814 0.0014965635 -0.0025198802 -0.002232672 -0.0038435077 -0.0012138843 -0.0026938682 -0.0026572607 0.0015065395 0.0014714429 -0.00022604526 -0.0017826805 -0.0015370201 -0.0017839096 -0.0010509136 -0.00070509315 -0.0020959855 -0.0005958123 -0.0028216077 0.0007151326 -0.0027336816 -0.0010361167 -0.0018298968 0.0007673236 -0.003388348 0.0020402523 -0.0008019404 0.001548341 0.00033043974 0.00031735245 -0.0008128489 -0.0022267117 -0.0011940653 -0.0032163456 0.0023748998 0.0013864193 0.0029684834 -0.0028261757 0.00041024975
12 0.0018104322 -0.002582109 -0.0010180187 0.0006032329 0.0024309333 0.0022666114 -0.00058669905 0.0033542898 -0.0038819977 0.0022356615 -0.00192969 -0.0007525403 0.00088760676 -0.00034724546 0.002817847 -8.624226e-05 0.0025542437 -0.0011001473 -0.001752927 -0.0024165222 0.00378921 -0.0008827079 -0.0027644616 0.00093934895 -0.0009269048 0.0005991134 0.0007028641 0.0034805648 -0.0024127152 0.0023670206 0.0033542898 1.0751357e-05 0.0037314561 -0.0022335788 -0.0015001114 0.0032042393 0.0028821148 -0.0031988032 0.0018135341 0.0030722308 -0.00044967927 -0.00046620233 -0.0015240085 -0.0019429941 0.001041468 -0.00093486 -0.00087993866 -5.9672337e-05 0.0027608115 0.0014954046 -0.002015955 0.0027755888 -0.0008630195 -0.00034987798 -0.0027809967 -0.0035348057 -0.00031690722 -0.0033812087 -0.0016869629 -0.002113661 -0.0015674194 -0.0033811238 -0.0025275466 -0.0012016133 -2.0500422e-05 0.003193524 0.001275547 -3.4558925e-06 -0.0013466765 0.0020199642 -0.0016158834 -0.0033162322 -0.0030242226 0.00094215677 -0.0018631893 -2.0274721e-05 -0.0036001746 0.0025422361 0.000623503 0.0004569824 -0.0031276927 0.0033556693 -0.0019643446 -0.0018760052 -0.0011666599 -0.00020993601 -0.0031813302 0.003904707 -0.0016132364 0.0034521401 0.0006478674 0.0009483655 -0.003598065 0.0031776854 0.00055385334 0.00028691688 0.00092984905 -0.0022918873 0.0013086961 -0.0016396109 1.8132301e-05 0.0037039793 0.0032516485 -0.0006597075 0.0021437637 0.0011418057 -0.0013607517 -0.0027251935 0.002237315 0.0035899833 0.0032279817 -0.0017276178 0.0008516048 0.0006682645 -0.003189832 0.0025367471 0.0032243035 -0.0037019374 -0.00030304465 0.0027346227 0.0013882272 0.0037239804 -0.00025701552 0.00016190679 9.8493285e-05 0.0013202552 -0.0031402116 -0.0031172542
