9 128
3 0.0034974716 0.0023372094 -0.0020959775 0.0011300207 0.0034608329 0.00061721134 0.002830532 0.00028740542 -0.0029362086 0.001344961 -0.0031587812 -0.0033670089 0.001504429 0.0012790654 0.001932947 0.0009295024 -0.00031247135 -0.0030775664 -0.0017957529 0.0026535934 -0.0032311792 0.0022765119 0.0016235649 -0.0013724156 -0.00053084147 -0.0030509378 -0.0027294448 -0.0035568578 -0.0030576785 0.002855571 -0.0024858038 -0.00041794154 0.002236848 0.0019342279 0.0002921487 -0.0010529191 -0.0026458162 -0.00060838857 9.931881e-05 0.00010239598 -0.0014334413 0.0038119913 -0.0018076241 0.003343062 0.0014339824 -0.0030414616 -0.0025292276 -0.0005354479 -0.0012292104 0.0026128255 -0.0022301162 0.0028663983 -0.0004988257 0.0007376208 -0.0015953464 0.002901149 -0.0014640755 0.0023220764 0.00020288452 0.002147585 0.0031800168 -0.0017829406 -0.00023887235 -0.0035361235 0.0025008165 -0.0031910788 -0.0032150883 -9.918002e-05 0.0012851718 -0.0021884104 -0.0036896076 -0.001317781 -0.0018696662 -0.00087169284 -0.0036822287 -0.0019789059 -0.0012497862 0.0036224818 -9.596427e-05 -0.00080925593 0.0035310464 0.0018679943 0.0005296413 0.0024593403 -0.0032478727 0.0033147205 -0.00028762757 0.0030979149 -0.0009852829 0.003866061 -0.0008416249 -0.0027314625 -0.0016662673 0.0027000098 8.731166e-05 0.0023387168 -0.0022830344 -0.0029760923 -4.1231593e-05 0.0011370615 -0.00088671787 0.0018970954 -0.0027729752 0.0006436447 0.0017370144 -0.001589493 0.0024596057 0.0036233312 0.0037224751 0.0030264896 0.002641004 -0.002564489 -0.002907216 0.003638767 0.0027163185 -0.00046779556 0.0018500785 -0.0020811385 0.000629258 -0.0030921048 0.0020186387 -0.0036935364 0.0004339194 -0.0010281696 0.0014122486 -0.0004548187 0.0014709956 -0.00031328647
5 0.0014510916 0.0023227488 -0.0026599998 0.002092588 -0.0017683641 0.0035557502 -0.0038135054 0.0024035985 0.003884152 -0.00073006214 0.0018937768 0.0002670016 -0.0029250497 -0.0011113184 0.00028869696 -0.002676475 0.0028657562 0.000576848 0.003801181 0.0024512326 -0.0021244106 -0.0033027905 0.0038142637 0.0018188572 0.0013028275 0.0017047949 -0.0011255292 0.0025729556 0.0014668007 -0.003310903 -0.0035221942 0.0036372622 -0.00076169026 -0.001338004 -0.003058656 0.0038348427 0.0007467781 0.0025125649 0.0037225292 -0.002593577 0.00046031523 0.0004079912 0.0033769635 -0.002935284 -0.002523963 -0.0012363452 0.0017264904 0.0032073741 0.0020297763 0.0029413463 -0.0003117119 -0.0014585244 -0.0021741183 -0.0001352317 0.0031478219 -0.0013824266 -0.0007006664 -0.002388463 -0.0027079477 -0.002254443 -0.00026765952 -0.0008378451 -0.0013408951 0.0034211474 -0.0030818817 -0.002789631 -0.00028577997 0.0017562559 0.0023817 -0.0013753766 0.0021582514 -0.001665861 0.0031417562 -0.0025324202 -0.0019821995 0.002000947 -0.000674905 0.00039085376 0.00020023205 0.0019517408 0.00054861826 -0.0034453962 0.0012211389 -0.00080828345 0.0033994925 -0.00031370626 -0.0018846476 0.0025355085 -0.0019155357 -0.0036093732 0.0031454745 0.00030122884 0.0015787075 -0.0036740992 -0.00032957323 -0.00070397864 0.002711047 -0.0028665243 0.0016560848 -0.003830584 0.0026447345 0.0031319084 -0.0022609546 -0.00015449068 -0.0014924214 -0.0027909474 0.001638813 -0.0010729455 0.00014532148 0.0014573563 -0.0022908933 0.0014351434 -0.0019205676 -0.0018576728 -0.0023533697 0.002874469 -0.0025331865 -0.003591225 0.0025245633 0.00046606123 -0.0038064313 -0.00015877858 -0.0021859284 0.00021451837 0.0025764348 -0.0028529586 -0.0014730116 0.00080993876
6 0.00022920567 0.00053167634 0.0025235815 0.0031775811 0.0004900094 0.0025232814 -0.0032311094 0.0028017655 -0.0021857976 0.0027930222 0.0015651279 0.00094455876 -0.0020606057 -0.001258617 -0.0023416714 0.00044718466 0.003218483 0.0013013593 0.0009279869 0.0015500771 -0.0016659684 0.0012268235 -0.0005747367 0.0014909116 0.0023047004 0.0031532987 0.00084808236 -0.0037781952 -0.0037665784 -0.0020234308 -0.0028349757 -0.0028447683 -0.0013298738 0.002344674 0.0022771114 -0.002965432 0.002100082 0.0011708097 0.0033975432 -0.0017483811 0.003799702 -0.002284839 -0.00016135562 -0.00010782408 -0.0035886688 -0.0003882977 4.5997193e-05 0.0037867583 -0.0038841723 0.0011796958 0.0032139895 0.0009197077 0.002916513 0.0010159848 -0.0010530596 -0.0026351027 0.0023745024 0.0033530944 -0.003645361 0.0037399726 0.002905583 0.00043544942 -0.003424971 0.0013460991 -0.00030332548 -0.0010688208 -0.00019082446 0.0022729374 -0.001558448 0.0020958926 -0.0034312666 0.0033857767 0.0017896965 -0.0030850233 0.0019677058 -0.00010193943 0.0005669327 3.621762e-05 0.0012364137 0.0018363891 -0.003813676 -0.003531292 -0.0028223686 0.002277657 0.00092584046 -0.0036780818 -0.0015367673 0.0013718 -0.0004130259 -0.0032869694 -0.0012175838 0.0021681215 0.0021196364 -0.001670271 0.0036175165 0.00015846676 0.0022474204 0.0014820601 0.0012694639 -0.0025661516 -0.0025594526 -0.0015697338 -0.00270148 0.0031464582 0.0004899483 -0.0016876765 -0.0025417919 -0.0015122157 -0.00390203 -0.002296069 -0.0005433012 -0.003345163 -0.00097655697 0.0035269172 0.0026573855 0.0007770051 0.001467963 -0.0026068315 0.0005475591 0.0037975623 -0.00028936254 -0.0015516722 -0.0017628768 -2.7853052e-05 0.0016633855 -0.000875519 0.0025171498 -0.0031265726
0 -0.00036209082 -0.0028141702 0.00020767031 -0.00028723403 0.00079438416 0.000942446 -0.003308089 -0.001076166 -0.0021972058 0.0030836212 -0.0017513162 -0.0038302848 -0.0006742871 -0.0018337368 -0.0010197387 0.0034626634 -0.002286946 0.0030142372 -0.0002330974 0.0020394085 -0.0021868942 -0.0032118773 0.0008017814 0.0016470401 -0.0010099199 -0.0031545819 0.0005211543 -0.0031165835 0.0019981365 -0.00086297304 0.001992987 -0.0022978692 0.0028315212 -0.0007532776 0.001107606 0.0017400209 -0.0012160504 -0.0020996446 0.00015493204 0.0030944864 0.00028321764 0.0029630864 -0.00092648104 0.0015575204 -0.0030238505 0.0010567568 -0.0020411026 0.00090121466 -0.0027617184 -0.0014186077 0.00020284961 0.0011358389 7.659636e-06 -0.003350125 0.00011093497 0.001416383 0.0018788812 -0.0021502452 -0.0038327677 0.0013648816 0.0033767007 -0.003381708 0.0031582045 -0.0035574755 -0.0026664292 0.0032504164 0.0038986758 0.0032235028 0.0013073259 0.00044809832 -7.085871e-05 -0.0010280238 0.0038996516 0.0010964136 -0.0017561507 0.0033775207 -0.0033824649 0.0028520315 0.0022377567 -0.0027291882 -0.0013293495 -0.00043460765 0.0011101024 -0.00075170025 0.0034643323 0.002499292 -0.0012318541 0.0010226684 -0.0024371094 0.0019875097 0.0034375922 -0.0031025412 0.0015424204 -0.0021730927 -0.0015406159 -0.0026004694 -8.4305255e-05 -6.108697e-05 0.002902037 0.0026641018 -0.0011278713 0.0011648522 0.002139409 0.0037833543 0.0033323595 0.00281421 0.0005883992 -0.0006707843 -0.0022988461 0.0037194102 0.00045324504 0.00040601203 0.0023204267 0.0005763753 0.00067085796 0.0016966918 0.001537222 -0.003406323 0.00030443174 0.003883039 0.0038821406 -0.0012856191 -0.0007538472 0.0035535928 0.0027253719 -0.00082313915 0.00056043343 0.002450671
8 0.0029907725 0.0009049999 -0.0005501164 -0.0022361367 -0.00039391484 0.00031076622 0.000612986 0.002210068 -0.001622274 0.0022222772 0.0032424857 0.0038186437 -0.0021688135 0.0008160353 -0.0035193595 -0.0006351019 -0.003685498 0.0024687247 0.0019957195 0.00010187771 -0.0017517299 -0.0019217152 -0.0013941278 0.0020718686 0.00022443404 0.002056773 -0.00178238 -0.0018072666 0.0016361764 -0.0030254351 -0.0034533415 -0.0031871113 0.0007576836 0.0011033483 0.0014391394 -0.0009940356 -0.0029654708 0.003897507 -0.0037355677 -0.0027074013 0.0003497681 0.0020188612 0.0009930724 -0.0017479467 0.003113244 0.0028609608 0.0030813725 0.002944603 0.00041866768 0.00091351237 -0.00037087486 -0.0006183145 0.0012898417 -0.0020453 0.0011200232 -3.3893725e-06 -0.0035982481 -0.0034395196 -6.719076e-06 0.0007375073 -0.0028830247 -0.0025177498 -0.0021141875 -0.0026475592 0.00017298684 -8.5242194e-05 0.0017588552 0.0017593543 -0.0009054472 0.00092077506 -0.0033893324 0.00088014925 -0.003615095 -0.0017924357 0.0013421996 0.00058423856 0.0036450622 7.1106864e-05 0.0024925123 0.0024936344 0.0005341807 0.0037566023 -0.0011454666 0.0029877403 -0.00078742387 0.0037630599 0.00034136773 0.0026163997 0.0025206085 -0.0021339958 0.0026451687 -0.0024455606 0.0011408365 0.001479036 0.001931029 0.003846413 -0.0033842598 -0.0034327577 0.0015210266 0.00028404893 0.0006884369 0.0010642787 -0.0038097939 -0.00056381006 -0.0010108101 0.0009782655 0.0010614973 -0.00064178504 -0.00068081846 -0.00035905262 0.0038480575 -0.0013173011 -0.0038726563 -0.0035336006 -0.0018589819 0.0030882058 0.0032455402 0.0012806483 -0.002192439 0.00053026556 0.003194368 -3.5816396e-05 0.0032339022 -0.0032857072 -0.0013085335 0.0019938431 9.746336e-05 0.0002340853
1 0.0007119682 0.0002585591 -0.00016893756 -0.0033637008 -0.0012301279 0.0021710952 -0.00087068905 -0.00036184667 -0.0005529542 0.00026227895 -4.6039688e-05 -0.0020402395 0.0015147902 -0.002533232 0.0034497743 -0.0033506951 -0.0014324725 -0.0014774041 0.0013906794 3.4819324e-05 -0.0034853648 0.003240925 0.001074436 0.0006777723 0.0008570589 -0.00012128519 0.003631609 0.0030482213 -0.0018202632 -0.0037703984 -0.0017249364 -0.0003935686 -0.0034956983 -0.00041572787 0.0011722582 -0.0030158814 3.0124733e-05 0.0032820052 -0.0029306489 -0.0006873084 0.002919592 -0.00289133 -0.0025658542 0.0011806214 -0.0033355644 -0.0032387145 -0.003274438 0.0002637265 0.0010324881 -0.0028687667 0.0036348843 0.00067485136 -0.00048032656 -0.002846643 2.0340278e-05 0.0038637917 -0.0024459073 0.0004132401 -0.00018997618 -0.003161981 -0.0015996834 -0.0009340029 -0.00019913683 5.5951496e-05 0.0027828335 0.0022126164 0.00015254643 0.0012011783 -0.0013952623 -0.0036746124 -0.0034304 -0.0025472892 -0.0027937116 0.0024436486 -0.0034266463 -0.0007028826 0.0016166663 0.0012964248 -0.0018528755 0.003616485 -0.0026913488 -0.0035432142 -0.0033581678 5.8477242e-05 -0.0014183115 -0.003156162 0.0030019642 -0.0008670538 -0.0002630412 0.0020752428 0.0024002516 -0.0032713937 -0.00025127782 -0.003844401 -0.003609561 0.003688882 -0.003010285 -0.0013583936 0.00010479634 -0.0025674806 0.0018419279 0.0006747027 -0.0022025919 -0.0012805044 0.0029105542 0.003860086 -0.0038121052 -0.0006322515 0.0010612344 -0.0024333664 -0.00038450045 -0.0009523098 -0.0012855635 -0.00052473694 0.0004821155 -0.0004742755 0.0021690882 0.0019224955 -0.0037157617 0.0037231112 -0.0013138546 0.0021796166 0.002577758 0.0012660188 0.00089595735 0.002424124 0.00035997995 0.0014988782
7 -0.0004079846 0.003105433 -0.0013208701 -0.001006333 0.0021589997 -0.00078861194 0.0031141595 -0.0030661593 -0.0028678924 -0.0012441617 0.0002805525 0.00092623226 -0.0026725077 -0.0028603051 -0.001499033 -0.003877378 -0.0034915658 0.0026486272 0.002375274 -0.0027120062 -0.0017803571 -0.002207287 -0.0027692954 -7.600857e-05 -0.003387904 0.0028351084 0.0006207608 0.0026918666 -0.002812378 -0.0014371738 -0.001759573 0.003380955 0.0020955885 -0.0026987793 -0.0013772972 0.0013950671 -0.00041751182 0.0018616526 -0.00058153603 -0.0002762397 -0.0021909727 0.0027923202 0.0037270037 0.0014545573 0.0034442646 -0.0035671124 -8.114154e-05 0.0027029964 0.0030464758 0.002886015 0.0004359754 -0.0005370216 0.0009008055 0.001664196 0.0012347326 -0.002708893 0.000977551 -0.0037118685 -0.0037707668 -0.0018985326 0.0013550142 0.0003200325 0.0033459498 0.0020055172 -0.0021379197 -0.002857743 0.0003215642 0.0036475044 -0.0013393766 -0.0039012886 0.002788294 0.0017562656 -0.0031245067 8.372529e-05 -0.0005200485 -0.0019341131 -0.0030735426 -0.0015551321 0.0031986015 0.0033365537 -0.0022457321 0.00026619103 -0.0037019367 -0.002800259 -0.0034531686 0.0029562018 -0.00040712854 0.0019214199 0.0011749523 0.0019623546 0.0018823091 -0.00046140322 -0.0036066684 0.003149271 0.00011228628 0.00082494976 0.0010794523 0.0022460262 -0.00029977981 4.8943416e-06 -0.0005569503 -0.0014526044 0.000111266476 0.0015797544 -0.0017027202 0.00064814143 0.0038579353 -0.0016181276 -0.0010100021 0.0012479817 0.0015874514 -0.0004376669 0.0020665012 -0.0027815723 0.0036796783 -0.0029820823 0.00027296672 0.003780529 0.0037265595 -0.003692789 -0.0032969096 -0.0010679109 0.0028206378 0.00010478394 0.003543173 -0.003106804 0.0022088476 0.00094780343
4 -0.0024279365 0.0011922951 0.0004956056 -0.0038311759 -0.0028792708 -0.0007074001 -0.001552718 0.0023018005 0.0025943066 -0.002021948 -0.0025830015 -0.0033673379 -0.00061284564 0.0006092811 -0.0012021583 -0.0026138355 -0.0009796701 0.0016156964 -0.0020961855 0.00036907688 -0.0021960097 0.003527729 -0.0012399363 -0.00026001464 0.0038999775 0.0011053185 0.0025267792 -0.0035642842 0.0016139728 -0.0018435835 0.0017772133 -0.0013579222 0.0036700107 0.00356063 -0.0033160562 -0.0023213231 -0.00031455222 -0.0028188128 -0.0026273145 4.7071164e-05 -0.0033739284 -0.0020114868 0.0009670481 -0.0037648894 -0.0021425467 0.00022345882 -0.0008635965 -0.0010303584 -0.0015445236 -0.0033701702 0.002545769 0.0025984317 -0.0016665339 0.00056103227 0.0010144846 -0.0026131524 -0.0009781995 -0.0007383031 -0.0031097124 -0.0010140844 -0.003756757 -0.0015547065 0.0014620555 0.0010178548 -0.0018545446 0.0021035227 0.001988302 0.002229945 0.0014131988 -0.0010265836 0.0035246972 -0.0024455497 0.0010402199 -0.0038606774 0.0026316664 -0.00084680266 -0.0004448914 -0.003818651 -0.0033072215 -0.0035257894 -0.00074664556 -0.0009746978 0.00064228143 0.0030345526 0.0017127648 0.0010932289 0.0011737767 -0.0030008785 -0.0011745485 -0.0018472202 -0.0032712836 -0.0011953481 -0.0014356574 -0.0026561744 -0.0022259795 -0.0011254228 0.002099972 0.0031268806 -0.0026177452 -0.0021871494 0.0035411124 -0.00017243835 0.001357771 0.003230438 -0.002777583 -0.0016962047 0.0028678696 -0.002829226 -0.0018851759 0.00054011657 0.0006449807 0.001588736 -0.0007865566 -0.00041929504 -0.003422233 -0.00043035587 0.0009846975 0.003276608 -0.0008707993 -0.0022339309 -0.0020204335 0.0037575918 0.002390001 -0.0014190228 -0.00047484148 0.0014615903 0.0028346356 -0.0037989817
2 -0.00037596855 -0.002452332 -0.0017805054 0.00096078013 -0.0006490222 -0.002466447 0.0028539011 0.0030251464 -0.0006638098 -0.0029254921 -0.002126705 -0.0032936933 -0.0028163365 -0.0033795207 3.6937745e-05 -0.0016179469 0.0035609 0.00011977566 -0.0017445711 -0.0010078846 0.0007369883 -0.0037445913 0.0010332447 0.0011375697 -0.00056853885 -0.0039051967 -0.0011136406 -0.0005122985 -0.0003769951 -0.0025605587 -0.0022829724 0.0037142755 0.0021308956 -0.00033148256 -0.00043171732 -0.0029731044 0.0004901411 -0.00066475867 -0.0018236641 0.0011358488 0.0038102686 -0.0014249781 -0.00020511026 0.0011263919 -0.0025790632 0.002831446 -0.0019772854 0.0037431119 0.001991326 0.0010279045 -0.0024797237 0.00086101185 -0.00049197435 0.0037201343 0.0036868805 0.0011624495 -0.0033078277 -0.0030558184 6.8456204e-05 -0.0035574422 -0.003433324 -0.002526052 -0.003892747 -0.0013205135 -0.0020824107 -0.001855249 -0.0027917696 -0.0013011103 -0.0026494395 0.0029821866 -0.0008634052 -0.0014149318 0.002131706 0.00046359806 -0.002952592 0.0035525134 0.0018395135 9.0918336e-05 -0.0013675403 0.003304666 0.003191851 -0.002112749 0.0018279824 0.0027200626 -0.0025546858 0.0023758006 -0.0013303038 -0.0029387737 0.003391351 0.00033773418 0.0038885064 -0.0035434903 -0.00038273307 -0.0007728006 0.0022244654 0.0015100867 -0.00024457744 -0.0011373202 -0.002886212 0.0023868917 0.0030243294 0.0024335338 -0.002270735 0.0033830157 -0.0020359964 -0.0022406355 0.003503773 -0.00015633013 -0.0037725933 -0.0027206028 -0.00028391878 0.0015651915 -0.0038462407 0.0014581266 0.00082637306 0.0027019004 -0.0007737396 -0.0018621479 0.0028100158 -9.939099e-05 -0.0021437379 -0.0011068452 -0.0018163113 0.00027345624 -0.00073726807 0.0030280726 0.0018684514 -0.0017624787
